{
  "version": 1,
  "inputCols": 8,
  "xMeans": [
    67.85714285714286,
    62,
    40.42857142857143,
    55,
    0.7142857142857143,
    0,
    -1.5714285714285714,
    0
  ],
  "xStds": [
    3.6421567954234173,
    1,
    4.06578556307363,
    1,
    6.226998490772391,
    1,
    6.388765649999399,
    1
  ],
  "yMean": 66.42857142857143,
  "yStd": 2.258769757263128,
  "finalLoss": 2.2262946686169016e-7,
  "epochs": 140,
  "trainedAt": "2026-04-18T22:38:08.683Z",
  "layers": [
    {
      "kernel": [
        -0.9433367252349854,
        -0.827843189239502,
        -0.643282413482666,
        0.4403509497642517,
        -0.48049116134643555,
        -0.20082823932170868,
        0.35177183151245117,
        0.1067749634385109,
        -0.6110075116157532,
        0.21511736512184143,
        0.11135788261890411,
        -0.07961367070674896,
        0.3014514148235321,
        0.16186539828777313,
        -0.2119220346212387,
        0.018384244292974472,
        -0.14979763329029083,
        -0.15294085443019867,
        0.2838928699493408,
        -0.0015731577295809984,
        0.42144322395324707,
        0.031979091465473175,
        -0.08302881568670273,
        0.2076255977153778,
        0.4950367510318756,
        -0.301214337348938,
        -0.10204771906137466,
        -0.08206205070018768,
        -0.23474127054214478,
        0.0870646983385086,
        -0.271902471780777,
        -0.172199547290802,
        -0.46237850189208984,
        -0.22155921161174774,
        -0.43639227747917175,
        0.09681366384029388,
        -0.704312801361084,
        -0.06148427724838257,
        0.048786792904138565,
        -0.6030816435813904,
        -0.7267531156539917,
        -0.7486786842346191,
        0.02134392224252224,
        0.30325502157211304,
        0.6875534653663635,
        -0.12415139377117157,
        0.3038405776023865,
        0.533035397529602,
        -0.2834451496601105,
        -0.21980920433998108,
        -0.017180023714900017,
        -0.2237352579832077,
        0.2557886838912964,
        0.10431977361440659,
        -0.45407769083976746,
        0.09397094696760178,
        0.2294251024723053,
        -0.2876635789871216,
        0.13420560956001282,
        0.14532169699668884,
        0.23818325996398926,
        0.31248971819877625,
        0.19072262942790985,
        0.3106918931007385,
        -0.25389742851257324,
        0.01920979470014572,
        -0.17494714260101318,
        -0.07390456646680832,
        -0.21406136453151703,
        -0.19706791639328003,
        0.05650816112756729,
        0.22405317425727844,
        0.22496692836284637,
        0.254462867975235,
        -0.005339853931218386,
        -0.13589739799499512,
        0.0027911635115742683,
        0.23277173936367035,
        0.10848823934793472,
        0.6097069978713989,
        0.1676364243030548,
        -0.1096879169344902,
        -0.506621778011322,
        -0.014072734862565994,
        -0.7872994542121887,
        0.36366957426071167,
        0.2660245895385742,
        -0.26395589113235474,
        0.45702052116394043,
        -0.6454138159751892,
        0.07833530008792877,
        0.06738374382257462,
        0.23191532492637634,
        -0.3329305946826935,
        0.021293386816978455,
        0.15611204504966736,
        0.3179921805858612,
        -0.2113916277885437,
        0.29761290550231934,
        -0.18192555010318756,
        0.06052304431796074,
        0.4468250274658203,
        -0.3430303931236267,
        0.15395039319992065,
        0.46155568957328796,
        -0.0002871965407393873,
        0.10325317829847336,
        -0.15242205560207367,
        -0.040927704423666,
        0.2016434669494629,
        -0.6850250959396362,
        0.15334804356098175,
        0.24654725193977356,
        -0.391835480928421,
        0.5220307111740112,
        0.36991745233535767,
        -0.1285327523946762,
        0.11445698887109756,
        0.7153797149658203,
        0.278716117143631,
        -0.1811191737651825,
        -0.3298943042755127,
        0.5028348565101624,
        0.4799216091632843,
        -0.36270657181739807,
        0.24428732693195343,
        0.4107041656970978,
        0.21915224194526672,
        0.519195556640625,
        0.10837884247303009,
        -0.0044275508262217045,
        -0.008675812743604183,
        -0.18632791936397552,
        0.023248733952641487,
        -0.049114812165498734,
        -0.5191624164581299,
        -0.16587677597999573,
        -0.44130679965019226,
        -0.06874614953994751,
        0.41572239995002747,
        -0.20133237540721893,
        -0.4857012629508972,
        -0.2075246423482895,
        0.11925844848155975
      ],
      "kernelShape": [
        8,
        18
      ],
      "bias": [
        0.20784644782543182,
        0.5050985217094421,
        -0.01054904330521822,
        0.09225933998823166,
        0.2474195659160614,
        0.14021483063697815,
        0.1417476087808609,
        0.1480058878660202,
        -0.0021022397559136152,
        -0.19272670149803162,
        -0.08547301590442657,
        -0.13608641922473907,
        0.37214866280555725,
        -0.022431712597608566,
        0.04583857208490372,
        -0.1572599560022354,
        -0.16707444190979004,
        -0.049610499292612076
      ],
      "biasShape": [
        18
      ]
    },
    {
      "kernel": [
        -0.4790480136871338,
        -0.3565516769886017,
        -0.5404894351959229,
        0.715988039970398,
        -0.17445585131645203,
        -0.09630373865365982,
        0.1565529704093933,
        -0.17598935961723328,
        -0.41545894742012024,
        0.2665412127971649,
        0.18390388786792755,
        0.06648121774196625,
        0.4904530346393585,
        0.8225223422050476,
        0.21764381229877472,
        -0.059067253023386,
        0.23504778742790222,
        -0.46302109956741333,
        0.12384771555662155,
        0.5232945084571838,
        0.17695412039756775,
        -0.4524657130241394,
        -0.21736976504325867,
        0.15210503339767456,
        -0.4838777482509613,
        -0.5308002233505249,
        -0.41922587156295776,
        0.13626088201999664,
        -0.1295519471168518,
        0.6867014765739441,
        0.1174604594707489,
        -0.3363080322742462,
        -0.4445430636405945,
        0.0580429881811142,
        0.10129474103450775,
        0.26110249757766724,
        0.03556675463914871,
        0.540428102016449,
        0.10425122827291489,
        -0.4316149353981018,
        0.07680369168519974,
        -0.3420482873916626,
        -0.07403802126646042,
        0.27458471059799194,
        -0.44174230098724365,
        0.28188836574554443,
        0.4073149263858795,
        0.043186213821172714,
        -0.11528696864843369,
        0.4852328598499298,
        -0.5393344163894653,
        -0.3362530767917633,
        -0.41583988070487976,
        0.07853186130523682,
        -0.2619343101978302,
        0.33787500858306885,
        -0.5379725098609924,
        0.3427685797214508,
        0.17018741369247437,
        0.3954427242279053,
        -0.0967148095369339,
        0.42965492606163025,
        0.4188462793827057,
        -0.18763116002082825,
        -0.013406330719590187,
        0.032236285507678986,
        -0.38244014978408813,
        0.4116263687610626,
        -0.2380557507276535,
        -0.2480982393026352,
        0.5528677105903625,
        0.5331268906593323,
        0.06042632833123207,
        -0.7343336939811707,
        0.17644710838794708,
        -0.07512753456830978,
        0.20224463939666748,
        0.3447812497615814,
        0.06210814043879509,
        -0.06985840201377869,
        0.04393463209271431,
        -0.08518040180206299,
        0.13420192897319794,
        -0.0027562847826629877,
        0.40838780999183655,
        0.2497776448726654,
        -0.5503793358802795,
        -0.011525063775479794,
        0.37759634852409363,
        -0.23514753580093384,
        -0.0813378393650055,
        0.11970064043998718,
        0.010893503203988075,
        0.08923274278640747,
        0.1975352168083191,
        0.17915232479572296,
        0.009553588926792145,
        0.2892756164073944,
        -0.20464947819709778,
        -0.3345617949962616,
        0.3414461016654968,
        0.34100237488746643,
        0.30485913157463074,
        -0.6103485822677612,
        0.34982800483703613,
        0.3162529766559601,
        0.7744098901748657,
        0.15276673436164856,
        -0.3429381847381592,
        -0.4590516686439514,
        0.24252130091190338,
        0.13490581512451172,
        0.27664846181869507,
        0.13162004947662354,
        0.261674165725708,
        0.5264778733253479,
        -0.3746810555458069,
        -0.2592449486255646,
        -0.08628853410482407,
        0.22543814778327942,
        -0.4414203464984894,
        -0.0030227084644138813,
        -0.5510857105255127,
        -0.7685104608535767,
        -0.30426108837127686,
        0.30623099207878113,
        0.5025373697280884,
        -0.051362838596105576,
        -0.24566562473773956,
        -0.25988683104515076,
        -0.11551429331302643,
        -0.05110521614551544,
        -0.39843833446502686,
        -0.1581394076347351,
        -0.06512878090143204,
        0.5143487453460693,
        -0.10815836489200592,
        0.2253614217042923,
        -0.3861147165298462,
        -0.14839203655719757,
        0.22144077718257904,
        0.33955496549606323,
        0.4733807444572449,
        0.055569782853126526,
        0.1145126149058342,
        -0.39533671736717224,
        -0.5799937844276428,
        -0.21326716244220734,
        0.14864134788513184,
        0.2702741324901581,
        -0.09847740828990936,
        0.023032261058688164,
        0.14460746943950653,
        -0.25765010714530945,
        0.10805869847536087,
        0.6317489147186279,
        0.8050400614738464,
        -0.17916128039360046,
        0.06752258539199829,
        -0.31990084052085876,
        -0.20182056725025177,
        0.10767339915037155,
        -0.5777307152748108,
        0.17018136382102966,
        -0.34887516498565674,
        0.09439695626497269,
        -0.4659600555896759,
        0.20100688934326172,
        0.35195791721343994,
        -0.3897426426410675,
        0.024149760603904724,
        0.2493586391210556,
        -0.19662441313266754,
        -0.6085003614425659,
        0.2818276286125183,
        -0.11150471121072769,
        0.6382346749305725,
        -0.5066404342651367,
        0.2954025864601135,
        -0.3683052361011505
      ],
      "kernelShape": [
        18,
        10
      ],
      "bias": [
        -0.24222148954868317,
        -0.17553968727588654,
        -0.16865220665931702,
        -0.12970229983329773,
        -0.1485150009393692,
        0.2806483507156372,
        0.14009840786457062,
        0.10339444875717163,
        0.02173023112118244,
        0.009719179943203926
      ],
      "biasShape": [
        10
      ]
    },
    {
      "kernel": [
        -0.009771494194865227,
        0.219313845038414,
        0.3163973093032837,
        0.6069038510322571,
        0.5294679403305054,
        -0.377154678106308,
        -0.5463470220565796,
        -0.34359869360923767,
        -0.2961803376674652,
        0.654788076877594
      ],
      "kernelShape": [
        10,
        1
      ],
      "bias": [
        -0.107965387403965
      ],
      "biasShape": [
        1
      ]
    }
  ]
}