{
  "version": 1,
  "inputCols": 8,
  "xMeans": [
    70.4,
    62,
    38,
    55,
    0.17142857142857143,
    0,
    0,
    0
  ],
  "xStds": [
    9.934643569708118,
    1,
    1,
    1,
    11.79705947450033,
    1,
    1,
    1
  ],
  "yMean": 70.11428571428571,
  "yStd": 10.30886284035366,
  "finalLoss": 0.3433710038661957,
  "epochs": 13,
  "trainedAt": "2026-04-20T14:26:55.164Z",
  "layers": [
    {
      "kernel": [
        -0.029642833396792412,
        -0.18531833589076996,
        -0.46756091713905334,
        0.05939723923802376,
        -0.2165614366531372,
        0.14507269859313965,
        -0.341726154088974,
        0.1783817708492279,
        -0.3956882655620575,
        0.08071564137935638,
        0.14266060292720795,
        0.09037402272224426,
        -0.09300139546394348,
        -0.6295475363731384,
        0.26472359895706177,
        -0.21694059669971466,
        -0.14591802656650543,
        0.04241504520177841,
        -0.03748370334506035,
        0.045682575553655624,
        0.030468909069895744,
        0.23994973301887512,
        -0.5053158402442932,
        0.1905454695224762,
        -0.42611148953437805,
        0.025817174464464188,
        -0.38204291462898254,
        -0.3860422968864441,
        0.22935274243354797,
        0.04506275802850723,
        -0.2841462194919586,
        0.007129073143005371,
        -0.29593637585639954,
        -0.054860442876815796,
        -0.02268368750810623,
        0.08606147021055222,
        0.011172265745699406,
        0.3262248933315277,
        0.24806798994541168,
        0.027501549571752548,
        0.10542357712984085,
        0.30173972249031067,
        0.11861877888441086,
        -0.08066994696855545,
        -0.30217692255973816,
        0.37828329205513,
        0.42285850644111633,
        0.19302088022232056,
        0.21511726081371307,
        0.42626988887786865,
        0.09935262054204941,
        0.2357078641653061,
        -0.010562662966549397,
        -0.10929813235998154,
        0.273052841424942,
        -0.1996980905532837,
        -0.034274403005838394,
        0.5372127890586853,
        0.02997034229338169,
        -0.24091270565986633,
        -0.22539286315441132,
        0.20901528000831604,
        -0.3929744362831116,
        -0.333360493183136,
        -0.49577921628952026,
        0.0012349789030849934,
        -0.11452879011631012,
        -0.4346233010292053,
        -0.31378886103630066,
        0.23351788520812988,
        -0.05818691849708557,
        -0.21665284037590027,
        -0.24864359200000763,
        0.44050514698028564,
        0.3484383523464203,
        -0.4698032736778259,
        -0.25826430320739746,
        -0.11470779776573181,
        -0.03407598286867142,
        0.2119731605052948,
        0.11899226903915405,
        0.09998741000890732,
        -0.24557669460773468,
        0.5663823485374451,
        -0.4529137909412384,
        0.23708078265190125,
        0.02055276371538639,
        0.20128513872623444,
        -0.12002705037593842,
        0.18175813555717468,
        0.0318889319896698,
        -0.2543908953666687,
        0.1851474642753601,
        -0.16447095572948456,
        0.13960139453411102,
        -0.25288301706314087,
        0.04918853938579559,
        0.5433816909790039,
        0.030918437987565994,
        0.1662987917661667,
        0.07482542097568512,
        -0.3533576726913452,
        -0.21200424432754517,
        -0.03480229526758194,
        -0.14639490842819214,
        0.13680808246135712,
        -0.023991435766220093,
        0.48810631036758423,
        -0.21359942853450775,
        0.17380695044994354,
        0.19068916141986847,
        0.26637154817581177,
        0.15724970400333405,
        -0.12484940141439438,
        0.04011751338839531,
        -0.06160693243145943,
        0.15427525341510773,
        -0.39817413687705994,
        0.03173844888806343,
        0.04531095549464226,
        0.15040893852710724,
        -0.2358597368001938,
        -0.0179218128323555,
        0.24490757286548615,
        -0.3158320188522339,
        0.09155169874429703,
        -0.15624579787254333,
        0.19890345633029938,
        -0.43674415349960327,
        -0.4663429856300354,
        0.42084434628486633,
        -0.4094439446926117,
        0.0403110645711422,
        0.11584498733282089,
        -0.15879985690116882,
        0.22084692120552063,
        -0.2886470556259155,
        0.08611499518156052,
        0.18599627912044525,
        0.14423738420009613,
        -0.10411467403173447,
        -0.14534558355808258,
        0.16880486905574799,
        -0.14960028231143951
      ],
      "kernelShape": [
        8,
        18
      ],
      "bias": [
        -0.08700326830148697,
        0.1425461769104004,
        0.09736324101686478,
        0.14719314873218536,
        0.06405112892389297,
        -0.2235625833272934,
        -0.12928983569145203,
        0.14875462651252747,
        0.030090194195508957,
        0.055262401700019836,
        0.036320481449365616,
        -0.016821207478642464,
        0.04040249437093735,
        0.15632833540439606,
        0.05118614435195923,
        -0.21023216843605042,
        -0.18391744792461395,
        -0.19421562552452087
      ],
      "biasShape": [
        18
      ]
    },
    {
      "kernel": [
        0.2601970136165619,
        0.23442302644252777,
        -0.24087001383304596,
        -0.27383676171302795,
        0.19027940928936005,
        0.6006030440330505,
        0.05686177313327789,
        -0.31756019592285156,
        -0.43166208267211914,
        0.22533097863197327,
        0.23913724720478058,
        0.26899856328964233,
        0.22141604125499725,
        -0.18010133504867554,
        0.6643519401550293,
        0.3518829345703125,
        -0.3747175633907318,
        0.18098263442516327,
        -0.17201846837997437,
        0.3813364505767822,
        -0.19829164445400238,
        0.4815278947353363,
        0.16267268359661102,
        -0.3397228419780731,
        -0.22195737063884735,
        -0.09076128900051117,
        -0.06558023393154144,
        -0.23324939608573914,
        0.0931590273976326,
        0.44783782958984375,
        0.4428201913833618,
        -0.06574321538209915,
        -0.588287353515625,
        -0.2827584445476532,
        0.5317568182945251,
        0.21749044954776764,
        -0.0037110885605216026,
        0.12703430652618408,
        0.20336131751537323,
        -0.5904189348220825,
        -0.01113705150783062,
        0.1450650691986084,
        0.33575963973999023,
        -0.08993206173181534,
        0.16784992814064026,
        0.4273217022418976,
        -0.32790741324424744,
        -0.1408623903989792,
        -0.04425048828125,
        -0.11513807624578476,
        -0.0003634414169937372,
        -0.17111630737781525,
        0.08630985021591187,
        -0.46916458010673523,
        -0.16574019193649292,
        0.08442413806915283,
        -0.07343533635139465,
        -0.28693443536758423,
        -0.10743311047554016,
        -0.33628740906715393,
        0.24855074286460876,
        -0.23600764572620392,
        0.266055166721344,
        -0.017521565780043602,
        -0.35209545493125916,
        0.12689371407032013,
        -0.07318100333213806,
        -0.5108405351638794,
        -0.0394175685942173,
        0.47504734992980957,
        -0.5181679129600525,
        -0.11131425946950912,
        -0.043181076645851135,
        -0.2685927152633667,
        0.3867526650428772,
        0.03526907414197922,
        -0.5988369584083557,
        -0.12132851779460907,
        0.004513714928179979,
        -0.38008394837379456,
        -0.43850764632225037,
        0.14554254710674286,
        0.21218527853488922,
        0.1510065197944641,
        -0.09190506488084793,
        0.11378833651542664,
        0.18938390910625458,
        0.16810721158981323,
        -0.47577592730522156,
        -0.06808950752019882,
        0.014512352645397186,
        -0.09353908896446228,
        0.0397772379219532,
        -0.11149879544973373,
        0.30345749855041504,
        -0.16165435314178467,
        0.0039906627498567104,
        -0.3506007194519043,
        -0.019000854343175888,
        0.04517269879579544,
        0.21770410239696503,
        -0.18227419257164001,
        -0.5379511117935181,
        -0.34939929842948914,
        0.05894789099693298,
        0.09078697115182877,
        -0.19393016397953033,
        -0.14104437828063965,
        -0.29803207516670227,
        -0.1542111039161682,
        -0.21580149233341217,
        -0.07768339663743973,
        -0.11273571848869324,
        -0.45121464133262634,
        0.6332678198814392,
        -0.2878292202949524,
        0.11346034705638885,
        -0.12681438028812408,
        -0.17707310616970062,
        -0.22701416909694672,
        0.2462649643421173,
        0.08954479545354843,
        0.10366926342248917,
        0.16622011363506317,
        0.37517473101615906,
        -0.11229758709669113,
        -0.29604196548461914,
        0.27327778935432434,
        -0.05734272673726082,
        -0.208783358335495,
        -0.2661130130290985,
        0.6077738404273987,
        0.19526970386505127,
        0.08985548466444016,
        0.027567103505134583,
        -0.18790790438652039,
        0.019411081448197365,
        -0.004070166498422623,
        -0.3669215738773346,
        0.38834571838378906,
        -0.11110616475343704,
        -0.2857303321361542,
        0.005601158365607262,
        0.19669795036315918,
        0.17955118417739868,
        0.4384121894836426,
        -0.30761435627937317,
        -0.45922988653182983,
        0.04363643005490303,
        -0.17010626196861267,
        -0.32368654012680054,
        0.19554227590560913,
        -0.3088172972202301,
        0.13688331842422485,
        0.4439546465873718,
        0.27346062660217285,
        -0.007624112069606781,
        -0.2711406350135803,
        0.13725832104682922,
        0.3562164008617401,
        -0.261728435754776,
        0.20515502989292145,
        0.03886256366968155,
        -0.18256725370883942,
        0.004957014229148626,
        0.33087632060050964,
        -0.08229639381170273,
        -0.15913765132427216,
        -0.28211668133735657,
        -0.46394777297973633,
        -0.29257670044898987,
        -0.18789958953857422,
        0.20093992352485657,
        -0.041710253804922104,
        0.026583231985569,
        -0.002499074675142765,
        -0.45558685064315796,
        -0.2773028016090393,
        -0.5023084878921509,
        -0.24269139766693115
      ],
      "kernelShape": [
        18,
        10
      ],
      "bias": [
        0.03101230226457119,
        -0.005236238241195679,
        0.1422620415687561,
        -0.11211109161376953,
        0.12957628071308136,
        0.1790095567703247,
        -0.11210988461971283,
        -0.11212991178035736,
        -0.15888004004955292,
        0.08101372420787811
      ],
      "biasShape": [
        10
      ]
    },
    {
      "kernel": [
        0.5288277864456177,
        -0.5769881010055542,
        -0.452934592962265,
        -0.4763284921646118,
        0.6114125847816467,
        0.08389463275671005,
        0.06475182622671127,
        -0.005052048247307539,
        0.12054659426212311,
        -0.3570769429206848
      ],
      "kernelShape": [
        10,
        1
      ],
      "bias": [
        0.0922221690416336
      ],
      "biasShape": [
        1
      ]
    }
  ]
}