{
  "version": 1,
  "inputCols": 8,
  "xMeans": [
    67.85714285714286,
    62,
    40.42857142857143,
    55,
    0.7142857142857143,
    0,
    -1.5714285714285714,
    0
  ],
  "xStds": [
    3.6421567954234173,
    1,
    4.06578556307363,
    1,
    6.226998490772391,
    1,
    6.388765649999399,
    1
  ],
  "yMean": 66.42857142857143,
  "yStd": 2.258769757263128,
  "finalLoss": 8.227497261259487e-8,
  "epochs": 140,
  "trainedAt": "2026-04-19T01:35:16.405Z",
  "layers": [
    {
      "kernel": [
        -0.79326993227005,
        0.3872208297252655,
        0.14380837976932526,
        0.31959453225135803,
        0.06940214335918427,
        -0.39993295073509216,
        -0.3498832881450653,
        0.16742415726184845,
        0.07088600844144821,
        0.2909659445285797,
        -0.20824682712554932,
        -0.23080578446388245,
        0.45884934067726135,
        0.30736133456230164,
        0.11924639344215393,
        0.312576025724411,
        0.02905808575451374,
        -0.024913612753152847,
        -0.13031557202339172,
        -0.2101626843214035,
        0.07428459823131561,
        -0.3491232991218567,
        0.20477081835269928,
        0.40249404311180115,
        0.016115231439471245,
        -0.15832218527793884,
        -0.02227981574833393,
        -0.40900149941444397,
        -0.2683820426464081,
        -0.24485057592391968,
        -0.40086761116981506,
        0.08001349866390228,
        -0.44029584527015686,
        0.056349486112594604,
        -0.05228080227971077,
        0.42935052514076233,
        -0.31724125146865845,
        -0.31602323055267334,
        -0.1942230612039566,
        -0.38392576575279236,
        0.6035518646240234,
        0.12104857712984085,
        -0.1286579817533493,
        -0.04761906713247299,
        -0.08247800171375275,
        0.43172118067741394,
        -0.2127981185913086,
        -0.17271797358989716,
        -0.5548552870750427,
        -0.3215363621711731,
        0.34470173716545105,
        0.2640666365623474,
        0.5587775707244873,
        -0.4345106780529022,
        0.28511717915534973,
        -0.14243508875370026,
        -0.2739277482032776,
        -0.03144945576786995,
        0.0027131792157888412,
        -0.04753933474421501,
        -0.1338600069284439,
        0.1764666736125946,
        -0.4569011926651001,
        -0.2903119921684265,
        -0.4686024785041809,
        0.3835262954235077,
        0.1468495875597,
        -0.06647629290819168,
        -0.05713376775383949,
        -0.20435731112957,
        -0.06536825001239777,
        -0.20343106985092163,
        -0.2597203850746155,
        -0.23073194921016693,
        -0.8449059724807739,
        0.44596973061561584,
        0.029194047674536705,
        0.7092016339302063,
        0.11297516524791718,
        -0.023943448439240456,
        0.16451147198677063,
        -0.17194052040576935,
        0.06843488663434982,
        -0.41770583391189575,
        0.5618701577186584,
        0.6497311592102051,
        -0.005743291229009628,
        -0.22907091677188873,
        -0.030462434515357018,
        0.6932670474052429,
        0.3212234675884247,
        -0.27061977982521057,
        -0.41122156381607056,
        -0.0939340889453888,
        0.3096441626548767,
        0.3676914572715759,
        -0.02479986660182476,
        -0.14764189720153809,
        0.08198083937168121,
        0.4054960310459137,
        0.44844645261764526,
        0.17740118503570557,
        -0.0005275777075439692,
        0.2142494022846222,
        -0.029576977714896202,
        -0.03102494589984417,
        0.14296002686023712,
        0.1118483692407608,
        0.1659902036190033,
        0.6997873783111572,
        0.2981865108013153,
        -0.2813289761543274,
        -0.29935625195503235,
        -0.00117050192784518,
        0.43089166283607483,
        0.25504007935523987,
        0.0149308443069458,
        0.09731907397508621,
        0.3576396107673645,
        0.043471843004226685,
        -0.07690511643886566,
        -0.12130217999219894,
        0.2302165925502777,
        0.14983060956001282,
        -0.050297822803258896,
        0.2946813404560089,
        -0.07622343301773071,
        0.1987491250038147,
        -0.5337093472480774,
        -0.02682340331375599,
        -0.18029865622520447,
        -0.02508784458041191,
        0.2583143711090088,
        0.2538270354270935,
        -0.3771010935306549,
        -0.28951650857925415,
        -0.5202832221984863,
        0.058384139090776443,
        0.13750651478767395,
        -0.14631839096546173,
        0.511835515499115,
        0.3168715834617615,
        -0.13335846364498138,
        0.5285325050354004
      ],
      "kernelShape": [
        8,
        18
      ],
      "bias": [
        0.32078617811203003,
        -0.06435727328062057,
        -0.124232217669487,
        0.12097489088773727,
        -0.15459096431732178,
        0.1957186609506607,
        0.23460084199905396,
        -0.1426202356815338,
        -0.08876717835664749,
        -0.2563970983028412,
        0.19667525589466095,
        -0.06391388922929764,
        0.13676360249519348,
        0.12633410096168518,
        0.026565803214907646,
        -0.15281721949577332,
        -0.15370245277881622,
        0.04773159697651863
      ],
      "biasShape": [
        18
      ]
    },
    {
      "kernel": [
        -0.2241729348897934,
        0.3038681149482727,
        0.17494453489780426,
        -0.36201032996177673,
        -0.43862617015838623,
        0.45642155408859253,
        0.004780639428645372,
        0.37030699849128723,
        -0.30665844678878784,
        0.4285672605037689,
        -0.8765676617622375,
        0.2888961136341095,
        0.7135867476463318,
        -0.02447008341550827,
        0.16932924091815948,
        -1.0414824485778809,
        0.23983292281627655,
        -0.5630218386650085,
        0.4980248510837555,
        -0.42128270864486694,
        -0.41956958174705505,
        0.6518861651420593,
        0.7093093991279602,
        0.0912160724401474,
        -0.5093100070953369,
        -0.09005500376224518,
        -0.010371093638241291,
        0.031087035313248634,
        -0.13086338341236115,
        -1.0781611204147339,
        -0.07259940356016159,
        -0.26741379499435425,
        -0.04961774870753288,
        0.2470647096633911,
        0.10506188124418259,
        -0.2637319564819336,
        0.2893880307674408,
        -0.40198349952697754,
        0.3252708911895752,
        -0.18268224596977234,
        -0.0425998754799366,
        0.2217819094657898,
        -0.191757932305336,
        -0.3337871730327606,
        -0.17462533712387085,
        0.026721607893705368,
        -0.026677805930376053,
        -0.10225807875394821,
        0.369549423456192,
        -0.35851362347602844,
        0.15454617142677307,
        -0.21194374561309814,
        -0.2511634826660156,
        -0.00028148078126832843,
        0.4247892498970032,
        0.8203417062759399,
        -0.2987804710865021,
        0.38748645782470703,
        0.2835984230041504,
        0.48618271946907043,
        0.18457277119159698,
        0.016877414658665657,
        0.6270664930343628,
        -0.21216948330402374,
        -0.2289719432592392,
        0.1881205290555954,
        0.0059525868855416775,
        0.09023334830999374,
        -0.18970942497253418,
        0.2652285695075989,
        0.23629747331142426,
        -0.523812472820282,
        0.3639273941516876,
        -0.09945549070835114,
        0.06261681765317917,
        -0.3985283374786377,
        0.2067817896604538,
        -0.17962266504764557,
        0.255822092294693,
        0.10991256684064865,
        -0.16085432469844818,
        -0.008451751433312893,
        0.08458396792411804,
        -0.16923657059669495,
        -0.10099312663078308,
        -0.4268009662628174,
        -0.20118029415607452,
        -0.2347073256969452,
        0.36472058296203613,
        0.19271083176136017,
        0.09970621764659882,
        -0.13141398131847382,
        -0.2961854040622711,
        -0.07193967700004578,
        -0.08504176139831543,
        0.14356383681297302,
        -0.25179681181907654,
        0.12635110318660736,
        -0.040700171142816544,
        0.39300137758255005,
        0.4545683264732361,
        0.6192607283592224,
        -0.008678427897393703,
        -0.11639785021543503,
        0.0792773962020874,
        0.13682733476161957,
        -0.12191683799028397,
        -0.13402843475341797,
        -0.46411415934562683,
        -0.031751859933137894,
        -0.5997657775878906,
        0.2813895642757416,
        0.19869112968444824,
        -0.11123141646385193,
        0.09085536003112793,
        -0.04748710244894028,
        -0.48228031396865845,
        -0.14730040729045868,
        -0.05411427468061447,
        -0.1628480702638626,
        0.21281640231609344,
        -0.2856180667877197,
        0.4390575885772705,
        0.1882401555776596,
        0.2754528522491455,
        -0.23762282729148865,
        0.18948304653167725,
        -0.24507197737693787,
        0.5251271724700928,
        0.042857732623815536,
        -0.11149086803197861,
        -0.15296219289302826,
        0.3513447344303131,
        -0.24447894096374512,
        0.34427720308303833,
        -0.47078588604927063,
        0.5132270455360413,
        -0.6713663339614868,
        -0.36873412132263184,
        0.1089506596326828,
        -0.20289070904254913,
        -0.4904218316078186,
        -0.14915651082992554,
        -0.322668194770813,
        0.3043504059314728,
        0.043565552681684494,
        0.31482335925102234,
        0.372720867395401,
        -0.058433908969163895,
        0.3074526786804199,
        -0.5969445705413818,
        0.479909747838974,
        -0.007944773882627487,
        0.3278549015522003,
        0.37334850430488586,
        -0.46361014246940613,
        -0.34915080666542053,
        0.21534128487110138,
        -0.4997309744358063,
        -0.10893484205007553,
        -0.0688362643122673,
        -0.032158367335796356,
        -0.2366676777601242,
        -0.08202413469552994,
        0.5843174457550049,
        -0.0053889816626906395,
        -0.5260310769081116,
        0.09514071047306061,
        -0.15188415348529816,
        0.22377429902553558,
        0.27682793140411377,
        -0.9536266922950745,
        -0.15944312512874603,
        -0.03227552771568298,
        0.3743725121021271,
        1.1528764963150024,
        0.39801499247550964,
        0.7357369661331177,
        0.43670305609703064,
        0.29841041564941406
      ],
      "kernelShape": [
        18,
        10
      ],
      "bias": [
        0.2541610598564148,
        -0.018345458433032036,
        -0.1949833631515503,
        -0.13672508299350739,
        0.012692676857113838,
        0.341354638338089,
        0.029153404757380486,
        0.3542514443397522,
        -0.12293669581413269,
        0.3802133798599243
      ],
      "biasShape": [
        10
      ]
    },
    {
      "kernel": [
        0.2549886107444763,
        -0.5592433214187622,
        -0.6572132110595703,
        0.06120036914944649,
        -0.43431663513183594,
        0.3313276767730713,
        -0.28693321347236633,
        0.3327096402645111,
        -0.3478710353374481,
        0.5898205637931824
      ],
      "kernelShape": [
        10,
        1
      ],
      "bias": [
        0.36287248134613037
      ],
      "biasShape": [
        1
      ]
    }
  ]
}