{
  "version": 1,
  "inputCols": 8,
  "xMeans": [
    56.855324561404096,
    46.276315789473685,
    53.63157894736842,
    53.75921052631579,
    -0.03146491228070173,
    -0.175,
    0.2855263157894737,
    -0.23026315789473684
  ],
  "xStds": [
    17.788354568982857,
    21.814166500483587,
    23.4985117699324,
    23.177772233165857,
    24.89632349520141,
    31.426809812642073,
    33.013056444013785,
    32.43922868727685
  ],
  "yMean": 56.7515942982462,
  "yStd": 17.826266207453592,
  "finalLoss": 1.012790560722351,
  "epochs": 56,
  "trainedAt": "2026-04-22T23:08:06.445Z",
  "layers": [
    {
      "kernel": [
        -0.1631781905889511,
        -0.14442645013332367,
        -0.15684589743614197,
        -0.00652684411033988,
        -0.2814760208129883,
        0.009474719874560833,
        0.045030076056718826,
        0.1403515636920929,
        -0.3025382459163666,
        -0.31715846061706543,
        0.11635585874319077,
        -0.282798707485199,
        0.2106490284204483,
        0.19178450107574463,
        0.2508348524570465,
        -0.3319297134876251,
        0.4943578839302063,
        -0.3588453233242035,
        -0.742865264415741,
        -0.3271511495113373,
        0.03130325675010681,
        0.12121383100748062,
        -0.4039806127548218,
        -0.325853556394577,
        -0.1367909461259842,
        0.3358406126499176,
        0.19690914452075958,
        -0.09066931158304214,
        0.3515583872795105,
        -0.25208061933517456,
        0.25750377774238586,
        0.17249491810798645,
        0.2566841244697571,
        -0.36395058035850525,
        0.10264785587787628,
        -0.23967772722244263,
        -0.36327457427978516,
        -0.04070066660642624,
        0.4241689145565033,
        0.3771609663963318,
        -0.3774168789386749,
        -0.3024631142616272,
        -0.1772298812866211,
        0.03280043974518776,
        -0.18857531249523163,
        -0.14362141489982605,
        -0.12387608736753464,
        0.3652282953262329,
        -0.34358710050582886,
        -0.2942870855331421,
        -0.010641728527843952,
        -0.15887583792209625,
        0.004605874419212341,
        0.4148825407028198,
        0.06754863262176514,
        -0.14652684330940247,
        0.028269341215491295,
        0.5362902283668518,
        -0.3191579580307007,
        0.3984796106815338,
        -0.18667370080947876,
        0.5870736837387085,
        0.581560492515564,
        -0.25426623225212097,
        0.08042773604393005,
        0.2447492629289627,
        -0.13591565191745758,
        -0.15607501566410065,
        0.07611525803804398,
        -0.09446129947900772,
        0.15925760567188263,
        -0.29323557019233704,
        0.2274622619152069,
        -0.22315995395183563,
        0.14699232578277588,
        0.010759428143501282,
        0.22007152438163757,
        -0.010066334158182144,
        -0.21078388392925262,
        0.2769335210323334,
        -0.06900306046009064,
        -0.513550877571106,
        0.03350713476538658,
        0.235471710562706,
        0.24520903825759888,
        0.04102403298020363,
        -0.04288402572274208,
        -0.025080878287553787,
        0.14824680984020233,
        -0.28765979409217834,
        0.40108194947242737,
        0.026665110141038895,
        -0.24314595758914948,
        -0.3175637125968933,
        -0.11274567991495132,
        0.06654669344425201,
        0.026291489601135254,
        0.23369644582271576,
        -0.12740787863731384,
        0.49997803568840027,
        -0.10170716792345047,
        -0.16301287710666656,
        0.21831804513931274,
        -0.015024653635919094,
        -0.22789610922336578,
        -0.07947885245084763,
        0.4635363817214966,
        -0.18142247200012207,
        -0.42702382802963257,
        -0.0981401577591896,
        0.31123387813568115,
        -0.6195214986801147,
        0.06583013385534286,
        0.12228740751743317,
        -0.24057649075984955,
        0.5186419486999512,
        0.17856179177761078,
        0.1202373206615448,
        0.04745030030608177,
        -0.27625611424446106,
        0.2940988540649414,
        0.34028246998786926,
        -0.039705295115709305,
        0.4128483235836029,
        -0.36928096413612366,
        0.3605383038520813,
        -0.02534155361354351,
        0.029841726645827293,
        0.10226111114025116,
        -0.3447321355342865,
        0.11927217990159988,
        0.0233465489000082,
        -0.1530536711215973,
        0.14002640545368195,
        -0.17021752893924713,
        0.1816801130771637,
        -0.08827514946460724,
        0.0033732187002897263,
        0.23587477207183838,
        -0.17688345909118652,
        -0.39436259865760803,
        -0.18990255892276764,
        -0.10135788470506668,
        0.3423529863357544,
        -0.23384089767932892,
        0.10142510384321213,
        0.039558641612529755,
        -0.2124001383781433,
        -0.12465373426675797,
        0.562242865562439,
        -0.4637756049633026,
        0.34831953048706055,
        -0.08609405159950256,
        0.3297404646873474,
        -0.2312338948249817,
        0.3178602159023285,
        0.08304890990257263,
        0.0452226884663105,
        0.6471877098083496,
        -0.026407526805996895,
        -0.19898287951946259,
        0.30328863859176636,
        0.13309963047504425,
        -0.23816032707691193,
        -0.16625721752643585,
        0.49921688437461853,
        -0.19411709904670715,
        0.24449500441551208,
        -0.27987056970596313,
        0.0008314205333590508,
        0.20034097135066986,
        -0.27451467514038086,
        -0.4154886305332184,
        0.0011291797272861004,
        -0.6883136630058289,
        0.316987544298172,
        0.15478821098804474,
        -0.030747776851058006,
        -0.4338184595108032,
        -0.5197170972824097,
        0.3071415424346924,
        -0.3201107084751129,
        -0.18708115816116333,
        0.25035911798477173,
        0.4525355398654938,
        -0.14438141882419586,
        0.16512151062488556,
        -0.23824629187583923,
        0.2943820357322693,
        0.28496870398521423,
        -0.048280928283929825,
        0.20963436365127563
      ],
      "kernelShape": [
        8,
        24
      ],
      "bias": [
        -0.11993956565856934,
        -0.1303563266992569,
        -0.4772259294986725,
        -0.05776095390319824,
        -0.1670028120279312,
        0.27759259939193726,
        -0.15034396946430206,
        -0.13104872405529022,
        -0.19235384464263916,
        -0.18360304832458496,
        -0.17371723055839539,
        0.22211188077926636,
        -0.07662772387266159,
        0.11156180500984192,
        0.16644100844860077,
        -0.25681424140930176,
        0.766921877861023,
        0.009029223583638668,
        -0.08639585971832275,
        -0.17478719353675842,
        -0.028177684172987938,
        -0.21789216995239258,
        -0.03141944110393524,
        -0.2631235122680664
      ],
      "biasShape": [
        24
      ]
    },
    {
      "kernel": [
        0.1809748262166977,
        -0.44851192831993103,
        -0.06628008931875229,
        -0.19733037054538727,
        0.21013684570789337,
        0.4338410496711731,
        0.06840138137340546,
        0.1318071484565735,
        -0.5320305824279785,
        -0.2929561138153076,
        0.1320069134235382,
        0.2502840459346771,
        -0.3364993929862976,
        -0.11903875321149826,
        -0.05918468162417412,
        -0.42693427205085754,
        0.1509510725736618,
        -0.10904226452112198,
        -0.20613957941532135,
        -0.25033462047576904,
        -0.3011545240879059,
        -0.06947963684797287,
        -0.16534042358398438,
        -0.2466242015361786,
        -0.3421037793159485,
        -0.38973289728164673,
        -0.01992749609053135,
        -0.13143698871135712,
        0.18429556488990784,
        0.22264935076236725,
        0.24890437722206116,
        0.06669575721025467,
        -0.16303090751171112,
        -0.15791907906532288,
        0.48362529277801514,
        0.34588623046875,
        0.14706237614154816,
        -0.20485574007034302,
        -0.16743336617946625,
        -0.5331196188926697,
        -0.1690855324268341,
        0.23211127519607544,
        -0.12571215629577637,
        0.2953867018222809,
        -0.09772276133298874,
        0.09872451424598694,
        -0.6290209889411926,
        -0.021245047450065613,
        0.07177744805812836,
        0.23560062050819397,
        0.19929887354373932,
        0.28935497999191284,
        0.25441524386405945,
        -0.2331182360649109,
        0.3199023902416229,
        -0.25613924860954285,
        -0.009553886950016022,
        0.06388091295957565,
        -0.3372257351875305,
        0.3470057249069214,
        0.31546133756637573,
        -0.20264551043510437,
        0.7332538962364197,
        -0.5046258568763733,
        -0.23468269407749176,
        -0.2295139580965042,
        -0.30500638484954834,
        -0.0604565255343914,
        -0.08737680315971375,
        0.028857601806521416,
        -0.17967335879802704,
        -0.46584054827690125,
        0.2647770047187805,
        -0.3937917649745941,
        -0.20774662494659424,
        0.06952496618032455,
        -0.037206653505563736,
        -0.19809140264987946,
        0.20415973663330078,
        -0.19853109121322632,
        -0.11530160903930664,
        -0.19733218848705292,
        -0.5560472011566162,
        -0.05772709473967552,
        0.2529379725456238,
        0.2584792375564575,
        0.028782377019524574,
        -0.3845771253108978,
        -0.337389200925827,
        -0.07844830304384232,
        0.1840071678161621,
        0.03246896713972092,
        -0.1440187394618988,
        -0.26209893822669983,
        0.3208451271057129,
        0.1783333569765091,
        -0.2839009761810303,
        0.1972099095582962,
        -0.14954331517219543,
        -0.16594871878623962,
        0.04754912853240967,
        0.23753847181797028,
        -0.05765924230217934,
        -0.06677374243736267,
        -0.372041255235672,
        -0.16955684125423431,
        0.022320782765746117,
        0.2181626260280609,
        -0.09786833822727203,
        -0.1936599761247635,
        0.5987157821655273,
        -0.026665255427360535,
        0.09541789442300797,
        0.16404765844345093,
        -0.12718410789966583,
        -0.005187161732465029,
        0.05026519298553467,
        -0.10709657520055771,
        -0.273952841758728,
        -0.06459444016218185,
        0.15092988312244415,
        0.1709897816181183,
        -0.18507851660251617,
        0.022997742518782616,
        -0.24547027051448822,
        -0.3932614326477051,
        -0.38414421677589417,
        -0.07307079434394836,
        -0.046315744519233704,
        0.052071139216423035,
        -0.43275001645088196,
        -0.11629986017942429,
        0.31587034463882446,
        0.06540805101394653,
        0.6819393634796143,
        -0.23548449575901031,
        0.01597093790769577,
        0.10234008729457855,
        -0.47882238030433655,
        -0.2210812121629715,
        -0.17103485763072968,
        -0.1903996765613556,
        0.1449667513370514,
        -0.2839367985725403,
        0.1865864396095276,
        -0.06058027222752571,
        0.1465793401002884,
        -0.2996557652950287,
        -0.07586198300123215,
        -0.2980259358882904,
        -0.4227754473686218,
        -0.2745239734649658,
        -0.06144087016582489,
        -0.03944126516580582,
        -0.18890352547168732,
        -0.14191845059394836,
        -0.00771289924159646,
        -0.25690585374832153,
        0.35593903064727783,
        -0.10936568677425385,
        -0.16194531321525574,
        0.044535230845212936,
        0.02151833288371563,
        -0.5612927675247192,
        0.08257333934307098,
        0.10721247643232346,
        -0.1493905931711197,
        -0.0265298280864954,
        -0.2378089725971222,
        -0.07331763207912445,
        0.4842534363269806,
        -0.11533947288990021,
        -0.03498914837837219,
        -0.34021273255348206,
        -0.44637221097946167,
        -0.2458539754152298,
        -0.008345155976712704,
        -0.20470941066741943,
        -0.1949121206998825,
        -0.42935246229171753,
        0.03381051495671272,
        -0.1278160661458969,
        -0.13155588507652283,
        -0.3337603807449341,
        0.016420943662524223,
        -0.16587017476558685,
        -0.26339080929756165,
        -0.07573388516902924,
        -0.3349892795085907,
        -0.0038263292517513037,
        0.04788929969072342,
        -0.38753560185432434,
        0.7456781268119812,
        -0.20652996003627777,
        0.9373630285263062,
        -0.05720437690615654,
        -0.3686700165271759,
        0.03506464138627052,
        -0.24331559240818024,
        -0.3368314504623413,
        0.23162893950939178,
        -0.48549002408981323,
        -0.36994901299476624,
        0.10346226394176483,
        0.23821261525154114,
        -0.2691570222377777,
        0.6189984679222107,
        -0.04564323648810387,
        -0.05145840346813202,
        0.22974148392677307,
        0.04545091837644577,
        -0.22412963211536407,
        -0.02784331887960434,
        -0.15174488723278046,
        0.028639620169997215,
        -0.043969232589006424,
        -0.15810012817382812,
        -0.3374175727367401,
        0.17518624663352966,
        0.008540195412933826,
        -0.5271892547607422,
        0.1414848417043686,
        -0.05597700551152229,
        -0.05044538900256157,
        -0.2268785983324051,
        -0.05030453950166702,
        0.3517290949821472,
        -0.2625512182712555,
        -0.12450432777404785,
        -0.1497849076986313,
        -0.2336185872554779,
        0.10151604562997818,
        -0.4247197210788727,
        0.06736482679843903,
        0.026483384892344475,
        -0.04520313814282417,
        -0.15048445761203766,
        -0.1161397323012352,
        -0.25905904173851013,
        -0.24747392535209656,
        0.11527147889137268,
        -0.20488055050373077,
        0.18995629251003265,
        0.06124547868967056,
        0.11301476508378983,
        0.019824767485260963,
        0.03261337801814079,
        -0.3943096399307251,
        -0.6798773407936096,
        -0.1054627075791359,
        -0.31677910685539246,
        0.16443100571632385,
        -0.2970920205116272,
        0.3653242886066437,
        0.1555306315422058,
        -0.14400042593479156,
        0.16381238400936127,
        0.10513614863157272,
        -0.03743710368871689,
        -0.18660713732242584,
        0.3795507252216339,
        0.06548037379980087,
        -0.017155013978481293,
        -0.19727568328380585,
        0.05894345045089722,
        -0.0677829384803772,
        0.028841933235526085,
        0.05906297639012337,
        -0.5492144823074341,
        -0.08011728525161743,
        -0.03065328299999237,
        0.22351419925689697,
        -0.40343013405799866,
        0.09593077749013901,
        -0.2850501239299774,
        -0.43552079796791077,
        -0.41937270760536194,
        -0.01789836958050728,
        0.02494722232222557,
        -0.5776511430740356,
        -0.261238694190979,
        -0.09666348993778229,
        -0.05361802503466606,
        0.26187965273857117,
        -0.48007693886756897,
        -0.3827081322669983,
        -0.034635912626981735,
        0.407993882894516
      ],
      "kernelShape": [
        24,
        12
      ],
      "bias": [
        0.30850428342819214,
        -0.11974882334470749,
        0.2933780550956726,
        -0.15477021038532257,
        -0.23845021426677704,
        -0.05176786705851555,
        -0.08381736278533936,
        -0.2048128843307495,
        -0.10004521906375885,
        -0.05336487293243408,
        -0.19433757662773132,
        0.015501011162996292
      ],
      "biasShape": [
        12
      ]
    },
    {
      "kernel": [
        0.13087505102157593,
        0.1386948823928833,
        -0.19863426685333252,
        -0.07276644557714462,
        0.09705600887537003,
        -0.09433607757091522,
        -0.42016276717185974,
        -0.46374720335006714,
        -0.23717349767684937,
        0.281686007976532,
        -0.7002460360527039,
        0.23043736815452576,
        -0.09665492177009583,
        0.6119506359100342,
        -0.13414497673511505,
        0.06668557226657867,
        -0.2401546686887741,
        -0.17681899666786194,
        -0.3047679364681244,
        -0.1658889353275299,
        -0.24094036221504211,
        -0.767646074295044,
        -0.10328944027423859,
        -0.6994745135307312,
        0.4853604733943939,
        -0.4105072319507599,
        -0.13100746273994446,
        0.20589450001716614,
        0.000514100247528404,
        -0.2715492844581604,
        -0.11980417370796204,
        -0.26415586471557617,
        -0.3377542793750763,
        -0.32659706473350525,
        0.1911705583333969,
        0.22411806881427765,
        0.00474023912101984,
        0.5574624538421631,
        0.01000683382153511,
        0.12690439820289612,
        -0.6824133396148682,
        0.20362870395183563,
        -0.24338412284851074,
        -0.4964523911476135,
        0.04124787449836731,
        0.3883765637874603,
        -0.0825403481721878,
        -0.1453782618045807,
        0.027277207002043724,
        -0.34604978561401367,
        -0.5322262644767761,
        0.43477320671081543,
        -0.2888747751712799,
        0.07734309881925583,
        0.08565644174814224,
        -0.2311413288116455,
        0.13544900715351105,
        -0.13447141647338867,
        0.008521871641278267,
        -0.2829212248325348,
        -0.05626997351646423,
        0.3869888186454773,
        0.2470638006925583,
        -0.06181071698665619,
        -0.0073201316408813,
        -0.3812190890312195,
        0.2824655771255493,
        0.532564640045166,
        0.3861156105995178,
        0.393451064825058,
        0.4746547341346741,
        -0.2672393023967743,
        -0.5387746095657349,
        -0.4661599099636078,
        0.2902771830558777,
        -0.1460842341184616,
        -0.39768922328948975,
        0.14042377471923828,
        0.4517723023891449,
        -0.15356743335723877,
        -0.019807202741503716,
        -0.11131919175386429,
        0.19679531455039978,
        -0.36168619990348816,
        -0.2878846228122711,
        -0.3835007846355438,
        -0.117177814245224,
        0.5895398855209351,
        0.05177510902285576,
        -0.2448529452085495,
        -0.18636517226696014,
        0.10571788996458054,
        -0.31134793162345886,
        -0.15162135660648346,
        -0.7191213965415955,
        0.11381463706493378
      ],
      "kernelShape": [
        12,
        8
      ],
      "bias": [
        -0.2241983413696289,
        -0.2536626160144806,
        -0.273333340883255,
        -0.15079060196876526,
        -0.15289241075515747,
        -0.09751112014055252,
        -0.2611863911151886,
        -0.0024744716938585043
      ],
      "biasShape": [
        8
      ]
    },
    {
      "kernel": [
        0.026282502338290215,
        -0.004973117727786303,
        0.187606081366539,
        0.20099328458309174,
        -0.17695730924606323,
        -0.14740951359272003,
        0.07323919981718063,
        -0.19457337260246277
      ],
      "kernelShape": [
        8,
        1
      ],
      "bias": [
        0.023640446364879608
      ],
      "biasShape": [
        1
      ]
    }
  ],
  "config": {
    "hiddenLayers": [
      24,
      12,
      8
    ],
    "learningRate": 0.02
  },
  "history": {
    "loss": [
      1.0180225372314453,
      1.0145485401153564,
      1.0129010677337646,
      1.0141899585723877,
      1.012717366218567,
      1.0144972801208496,
      1.0145611763000488,
      1.0135465860366821,
      1.0155844688415527,
      1.0136772394180298,
      1.0142440795898438,
      1.0141903162002563,
      1.0130081176757812,
      1.0139724016189575,
      1.0133538246154785,
      1.0132880210876465,
      1.0144991874694824,
      1.0138928890228271,
      1.0152952671051025,
      1.01552152633667,
      1.0156282186508179,
      1.0131134986877441,
      1.0136311054229736,
      1.012160301208496,
      1.0137754678726196,
      1.0135232210159302,
      1.0132025480270386,
      1.013969898223877,
      1.0140440464019775,
      1.0130808353424072,
      1.0141183137893677,
      1.0127513408660889,
      1.0126078128814697,
      1.0127876996994019,
      1.0112055540084839,
      1.0129984617233276,
      1.0133568048477173,
      1.013118028640747,
      1.013493537902832,
      1.0124576091766357,
      1.0158233642578125,
      1.0122445821762085,
      1.0154439210891724,
      1.0145162343978882,
      1.0139625072479248,
      1.0123870372772217,
      1.0139530897140503,
      1.0125623941421509,
      1.0130640268325806,
      1.013856291770935,
      1.0134068727493286,
      1.0142210721969604,
      1.0170522928237915,
      1.0137872695922852,
      1.0145604610443115,
      1.012790560722351
    ],
    "val_loss": [
      0.9373210072517395,
      0.9373779892921448,
      0.9344145059585571,
      0.9330631494522095,
      0.9401804804801941,
      0.9333697557449341,
      0.9344200491905212,
      0.9340368509292603,
      0.9392195343971252,
      0.9330849647521973,
      0.9346268177032471,
      0.9375877380371094,
      0.9364868402481079,
      0.9329372048377991,
      0.9333374500274658,
      0.9352177977561951,
      0.940825879573822,
      0.9394088387489319,
      0.9365654587745667,
      0.9350712895393372,
      0.933582603931427,
      0.9384516477584839,
      0.9338037371635437,
      0.9346982836723328,
      0.9348698854446411,
      0.9329288005828857,
      0.9329478740692139,
      0.9381219744682312,
      0.9345502257347107,
      0.9402028322219849,
      0.93341064453125,
      0.9332125186920166,
      0.9401347041130066,
      0.9331338405609131,
      0.9506461024284363,
      0.932925820350647,
      0.9375911951065063,
      0.9353813529014587,
      0.935763955116272,
      0.9330308437347412,
      0.9332794547080994,
      0.9344046711921692,
      0.9346991777420044,
      0.932949423789978,
      0.9340698719024658,
      0.9349977970123291,
      0.9355226159095764,
      0.9343074560165405,
      0.9432146549224854,
      0.9329419732093811,
      0.932975709438324,
      0.9361224174499512,
      0.9347403049468994,
      0.9407317638397217,
      0.9339159727096558,
      0.9349223971366882
    ]
  },
  "metrics": {
    "mae": 15.247727272727268,
    "directionAccuracy": 0.5
  }
}