{
  "version": 1,
  "inputCols": 8,
  "xMeans": [
    67.85714285714286,
    62,
    40.42857142857143,
    55,
    0.7142857142857143,
    0,
    -1.5714285714285714,
    0
  ],
  "xStds": [
    3.6421567954234173,
    1,
    4.06578556307363,
    1,
    6.226998490772391,
    1,
    6.388765649999399,
    1
  ],
  "yMean": 66.42857142857143,
  "yStd": 2.258769757263128,
  "finalLoss": 1.5603262681906926e-7,
  "epochs": 140,
  "trainedAt": "2026-04-19T01:44:18.987Z",
  "layers": [
    {
      "kernel": [
        0.1923016905784607,
        -0.44580551981925964,
        -0.14954939484596252,
        0.5277405381202698,
        -0.420817106962204,
        -0.028225837275385857,
        -0.5037656426429749,
        -0.5651646852493286,
        0.4605790078639984,
        -0.05959159508347511,
        -0.11874829232692719,
        0.14980381727218628,
        0.6868146061897278,
        -0.09321253001689911,
        -0.4790009558200836,
        0.6229894161224365,
        -0.30445078015327454,
        -0.2668595314025879,
        0.26321136951446533,
        0.5034982562065125,
        0.10168469697237015,
        0.4071291387081146,
        0.3770657777786255,
        0.17587131261825562,
        -0.2507295608520508,
        0.2948060929775238,
        -0.018647966906428337,
        0.022531256079673767,
        0.03167349100112915,
        -0.1080363541841507,
        -0.06234154477715492,
        -0.3660598695278168,
        0.18909642100334167,
        0.03905951604247093,
        -0.4488605260848999,
        0.5107813477516174,
        -0.13788996636867523,
        -0.23672448098659515,
        -0.19068723917007446,
        -0.2686440944671631,
        -0.4333462715148926,
        -0.11026525497436523,
        0.13422876596450806,
        -0.39536136388778687,
        -0.5851502418518066,
        0.23953518271446228,
        0.11987560242414474,
        -0.3250867426395416,
        0.05488229915499687,
        -0.3627477288246155,
        -0.45653843879699707,
        -0.18874357640743256,
        0.4366076588630676,
        -0.413402259349823,
        -0.2927989959716797,
        -0.17641915380954742,
        0.10692602396011353,
        0.047045860439538956,
        0.32541269063949585,
        -0.0073259249329566956,
        -0.23984800279140472,
        0.01984165422618389,
        0.29203328490257263,
        -0.05495648458600044,
        -0.39617952704429626,
        0.05780528858304024,
        -0.4323265552520752,
        -0.27615171670913696,
        -0.15680034458637238,
        -0.39103251695632935,
        -0.11039835959672928,
        -0.26568394899368286,
        0.3267799913883209,
        0.1610974222421646,
        0.21972204744815826,
        0.22392772138118744,
        0.5017571449279785,
        -0.6065076589584351,
        -0.2510601282119751,
        0.867766261100769,
        -0.3628014028072357,
        0.2075115442276001,
        -0.40976524353027344,
        0.03423653542995453,
        0.3231803774833679,
        -0.3745591640472412,
        0.4062517285346985,
        0.21700307726860046,
        0.28664320707321167,
        0.5193795561790466,
        -0.20093904435634613,
        0.22483478486537933,
        -0.1534186452627182,
        0.1680627465248108,
        0.21296225488185883,
        0.1759246587753296,
        0.1513252556324005,
        -0.09130244702100754,
        0.15771923959255219,
        0.5348884463310242,
        -0.42958736419677734,
        -0.2477688491344452,
        0.541508138179779,
        -0.1936226785182953,
        -0.29553210735321045,
        0.13919633626937866,
        0.37817296385765076,
        -0.511957049369812,
        0.010531608946621418,
        -0.19334687292575836,
        0.12206282466650009,
        -0.20406284928321838,
        -0.06712369620800018,
        0.0643574520945549,
        0.15112529695034027,
        0.23616908490657806,
        0.048903316259384155,
        0.4138413965702057,
        -0.6092591285705566,
        -0.022124646231532097,
        -0.14169660210609436,
        0.2519969642162323,
        -0.030851734802126884,
        -0.03562503308057785,
        0.24328948557376862,
        -0.2008097618818283,
        -0.03752513974905014,
        -0.2519409954547882,
        -0.029223697260022163,
        0.3689555823802948,
        0.0007213641074486077,
        -0.4639861285686493,
        -0.0651867538690567,
        -0.054870299994945526,
        0.0682191476225853,
        -0.2037491500377655,
        0.05006764084100723,
        0.12678326666355133,
        -0.3042788803577423,
        0.03505619987845421,
        0.2077985405921936,
        0.22695323824882507,
        0.5420295596122742,
        -0.20399536192417145
      ],
      "kernelShape": [
        8,
        18
      ],
      "bias": [
        -0.05798184499144554,
        -0.18349598348140717,
        -0.08658517897129059,
        0.2694053053855896,
        0.04593387246131897,
        0.07063755393028259,
        -0.02766517922282219,
        -0.06093863025307655,
        0.15785685181617737,
        0.06568409502506256,
        -0.0003535316209308803,
        -0.07292497158050537,
        -0.01751922443509102,
        0.08235146850347519,
        0.06457147747278214,
        0.32635733485221863,
        0.04512922838330269,
        0.02331552840769291
      ],
      "biasShape": [
        18
      ]
    },
    {
      "kernel": [
        -0.02666936255991459,
        0.2407992035150528,
        0.04899653047323227,
        -0.6213589310646057,
        0.31696832180023193,
        -0.1502559334039688,
        -0.20524123311042786,
        0.28255194425582886,
        -0.12902288138866425,
        -0.17661498486995697,
        -0.047018278390169144,
        -0.11129137128591537,
        0.44455665349960327,
        0.2589494287967682,
        -0.35852333903312683,
        -0.3908686339855194,
        0.2822716236114502,
        -0.27039456367492676,
        0.29851508140563965,
        -0.09053972363471985,
        0.22151930630207062,
        -0.19389760494232178,
        -0.08405852317810059,
        0.6059504747390747,
        0.5973564982414246,
        0.09576891362667084,
        0.07921213656663895,
        -0.30931586027145386,
        -0.0873550996184349,
        -0.35705363750457764,
        -0.42757242918014526,
        0.09763269126415253,
        -0.5037980079650879,
        -0.544305682182312,
        -0.059618279337882996,
        0.2733827829360962,
        -0.12718313932418823,
        -0.4362260103225708,
        0.16285400092601776,
        0.16975748538970947,
        -0.24369700253009796,
        0.1733373999595642,
        0.9612374305725098,
        0.7951452136039734,
        0.372350811958313,
        -0.2728028893470764,
        0.23675641417503357,
        -0.25339266657829285,
        -0.3553357422351837,
        -0.405931681394577,
        0.045444123446941376,
        0.5065085887908936,
        -0.7289846539497375,
        -0.6794498562812805,
        -0.10794515162706375,
        -0.6374144554138184,
        -0.7097604274749756,
        -0.2551279067993164,
        0.1610640436410904,
        -0.2052888423204422,
        -0.2214425802230835,
        0.1220003217458725,
        -0.20565442740917206,
        0.03251589462161064,
        -0.4706708490848541,
        -0.10039770603179932,
        0.38165971636772156,
        0.13989698886871338,
        -0.3307778835296631,
        0.21683868765830994,
        -0.1420176923274994,
        -0.15939456224441528,
        0.7345703840255737,
        0.4764045178890228,
        -0.3800859749317169,
        0.18393056094646454,
        0.7984323501586914,
        -0.4415389895439148,
        -0.131755992770195,
        0.4071369767189026,
        -0.13055096566677094,
        0.1928870975971222,
        -0.31444066762924194,
        -0.5692000389099121,
        0.018398767337203026,
        0.02087949402630329,
        -0.7093033194541931,
        -0.039296362549066544,
        -0.01081684697419405,
        -0.3203337788581848,
        -0.445470929145813,
        -0.1625833660364151,
        -0.5436626076698303,
        0.6309850811958313,
        0.22175103425979614,
        -0.3698458969593048,
        0.13599079847335815,
        0.4236183762550354,
        0.19413821399211884,
        0.23151355981826782,
        -0.641319990158081,
        -0.23833522200584412,
        -0.7458423376083374,
        -0.299445778131485,
        -0.5543219447135925,
        0.23661112785339355,
        -0.21007296442985535,
        -0.40638652443885803,
        -0.2825435996055603,
        -0.09881381690502167,
        0.1494263857603073,
        0.027309272438287735,
        -0.32201045751571655,
        -0.44721412658691406,
        -0.2923068702220917,
        0.2822266221046448,
        -0.17451928555965424,
        -0.07710640877485275,
        -0.09288932383060455,
        -0.3995271921157837,
        -0.46081045269966125,
        -0.07803529500961304,
        -0.09570017457008362,
        -0.12444159388542175,
        0.1986616849899292,
        -0.14673787355422974,
        0.0782201811671257,
        0.5376423001289368,
        -0.33803144097328186,
        -0.49973800778388977,
        -0.4833287000656128,
        0.4567323327064514,
        -0.013939939439296722,
        -0.35585278272628784,
        -0.014234432950615883,
        -0.2751767337322235,
        -0.2457963079214096,
        0.26756542921066284,
        -0.2533362805843353,
        -0.5231487154960632,
        0.22835730016231537,
        0.16922543942928314,
        0.8212354779243469,
        0.23310600221157074,
        -0.009880362078547478,
        0.11963061988353729,
        0.4369206726551056,
        -0.2373356819152832,
        -0.2071850597858429,
        -0.542634904384613,
        -0.04369381442666054,
        0.18761835992336273,
        -0.3200109601020813,
        -0.3822883665561676,
        0.16599713265895844,
        0.5773094892501831,
        -0.5036894679069519,
        -0.1149180606007576,
        -0.5291361212730408,
        -0.3990403711795807,
        -0.08336351066827774,
        -0.2229161411523819,
        -0.22444315254688263,
        0.21642477810382843,
        -0.30491939187049866,
        -0.08982168883085251,
        0.0296302642673254,
        0.0636160597205162,
        -0.37899908423423767,
        -0.43728500604629517,
        0.027919303625822067,
        -0.03634404391050339,
        0.23124493658542633,
        0.4652400314807892,
        0.28787481784820557,
        0.2089097499847412,
        0.3197137117385864,
        -0.26262229681015015,
        0.0818312019109726,
        -0.09167633950710297
      ],
      "kernelShape": [
        18,
        10
      ],
      "bias": [
        -0.20409002900123596,
        0.06661345064640045,
        -0.08408407866954803,
        0.09875833243131638,
        0.0074988724663853645,
        0.001409786636941135,
        0.209800124168396,
        0.017919262871146202,
        0,
        -0.1201089546084404
      ],
      "biasShape": [
        10
      ]
    },
    {
      "kernel": [
        0.06355050206184387,
        -0.637192964553833,
        0.6333076357841492,
        0.7012859582901001,
        -0.36272284388542175,
        -0.18063102662563324,
        0.5070821046829224,
        0.31173545122146606,
        -0.7704773545265198,
        -0.313889741897583
      ],
      "kernelShape": [
        10,
        1
      ],
      "bias": [
        -0.01564129814505577
      ],
      "biasShape": [
        1
      ]
    }
  ]
}