{
  "version": 1,
  "inputCols": 8,
  "xMeans": [
    78.1242819425809,
    62.914567157518086,
    46.52140041648074,
    39.911125985423176,
    0.9845095195597193,
    0.8808058158560241,
    -0.5147999405027518,
    -1.8397664733006098
  ],
  "xStds": [
    7.971395107577922,
    6.452407863861595,
    6.241446427322825,
    21.578216458285418,
    1.7234340732545934,
    2.2601347075452183,
    2.514542779777443,
    14.821502978210182
  ],
  "yMean": 79.12429979175629,
  "yStd": 8.255284003515616,
  "finalLoss": 0.03502090275287628,
  "epochs": 40,
  "trainedAt": "2026-04-20T00:21:26.861Z",
  "layers": [
    {
      "kernel": [
        0.032024919986724854,
        -0.060053106397390366,
        -1.0465245246887207,
        -0.1507684886455536,
        -0.44140884280204773,
        0.5669773817062378,
        -4.151692867279053,
        1.6757657527923584,
        -0.40624502301216125,
        -0.33993807435035706,
        7.4032697677612305,
        1.030790090560913,
        0.07827571034431458,
        0.35274046659469604,
        0.3734080493450165,
        0.1359446942806244,
        -0.27084556221961975,
        0.4982471168041229,
        -0.005387960001826286,
        0.11203587055206299,
        0.34038329124450684,
        0.12229384481906891,
        0.3770827353000641,
        -0.22605741024017334,
        -0.20509253442287445,
        -0.37762463092803955,
        0.2202264666557312,
        0.9685121774673462,
        0.4027121961116791,
        -0.45376056432724,
        0.11040952801704407,
        -0.27213892340660095,
        -0.08159929513931274,
        -0.05069778487086296,
        0.15609155595302582,
        0.061181746423244476,
        0.11114650219678879,
        0.054032981395721436,
        -0.2581721246242523,
        -0.16658753156661987,
        -0.008855427615344524,
        0.055186301469802856,
        0.17649413645267487,
        0.12005665898323059,
        0.365118145942688,
        0.28596311807632446,
        -0.32164400815963745,
        -0.2932938039302826,
        -0.016681812703609467,
        0.16810517013072968,
        0.07838425040245056,
        0.02238568291068077,
        0.2032109797000885,
        0.4558267593383789,
        0.02359725534915924,
        0.1383827179670334,
        -0.4593921899795532,
        -0.003969104029238224,
        -0.4585758447647095,
        0.2482137829065323,
        0.1312214881181717,
        0.4626249372959137,
        -0.2704385221004486,
        -0.23530486226081848,
        -0.1000165343284607,
        0.4011235535144806,
        0.14186909794807434,
        0.11993581056594849,
        0.1599210649728775,
        0.13510450720787048,
        -0.5463038086891174,
        -0.1889486312866211,
        0.11909431964159012,
        -0.07205349951982498,
        0.1352294683456421,
        0.033023033291101456,
        0.13561290502548218,
        0.03195495158433914,
        0.4095987379550934,
        -0.6782451272010803,
        -0.13276159763336182,
        0.14457489550113678,
        -0.8432360887527466,
        -0.05759308114647865,
        -0.040195055305957794,
        -0.14605151116847992,
        0.0969480648636818,
        -0.03423275053501129,
        0.049676522612571716,
        0.36127474904060364,
        -0.03928915783762932,
        0.039731498807668686,
        -0.17920447885990143,
        -0.06555098295211792,
        -0.1786830723285675,
        0.02167404070496559,
        0.055140420794487,
        -0.023821039125323296,
        0.05054556950926781,
        0.25817757844924927,
        0.13082130253314972,
        0.12367171794176102,
        0.0355108343064785,
        -0.032670531421899796,
        -0.10860109329223633,
        0.042701080441474915,
        -0.10534598678350449,
        0.1082419902086258,
        0.06822606176137924,
        -0.06444411724805832,
        0.046594325453042984,
        0.07791873812675476,
        0.10115016996860504,
        -0.03045143559575081,
        -0.050894271582365036,
        0.03556077554821968,
        -0.27184349298477173,
        -0.08334837853908539,
        0.13159100711345673,
        0.27576830983161926,
        -0.01600703038275242,
        -0.2032926231622696,
        -0.024972453713417053,
        0.04421621188521385,
        -0.00966121256351471,
        0.14181247353553772,
        0.1115865483880043,
        -0.04401157423853874,
        0.25613805651664734,
        -0.027172740548849106,
        0.06346770375967026,
        -0.029065238311886787,
        -0.10418781638145447,
        0.122029609978199,
        -0.09187514334917068,
        0.11589518934488297,
        0.006707152351737022,
        -0.2548370361328125,
        -0.07998920232057571,
        -0.07851949334144592,
        0.046673472970724106,
        -0.036844003945589066,
        -0.09803767502307892,
        0.00042235013097524643
      ],
      "kernelShape": [
        8,
        18
      ],
      "bias": [
        -1.1119738817214966,
        -0.6300745606422424,
        -1.4809215068817139,
        -0.5374245047569275,
        -1.6320950984954834,
        -1.02409029006958,
        0.564484715461731,
        -3.7875168323516846,
        -1.732102394104004,
        -2.6242575645446777,
        -1.7762665748596191,
        -2.4613702297210693,
        -0.522554337978363,
        -1.7097455263137817,
        -1.1948833465576172,
        -0.37642472982406616,
        -1.5848336219787598,
        -2.530440330505371
      ],
      "biasShape": [
        18
      ]
    },
    {
      "kernel": [
        0.05423224717378616,
        0.14774656295776367,
        0.2693321704864502,
        0.04617811739444733,
        0.04939321056008339,
        -0.05849790200591087,
        -0.08871536701917648,
        -0.18149837851524353,
        -0.1173432469367981,
        -0.010401240549981594,
        -0.04000387713313103,
        0.08929488807916641,
        -0.7612369656562805,
        -0.12619492411613464,
        0.24292786419391632,
        0.1516902595758438,
        0.06652836501598358,
        0.018665511161088943,
        0.11803390830755234,
        0.06093543767929077,
        -0.1472313106060028,
        -0.33738037943840027,
        -0.14393945038318634,
        -0.1750166416168213,
        -0.503410279750824,
        0.13253656029701233,
        -0.15487809479236603,
        -0.2484111189842224,
        0.29895418882369995,
        -0.3507691025733948,
        -0.1421612948179245,
        0.39524045586586,
        -0.22289271652698517,
        0.04101186245679855,
        0.3812974989414215,
        0.142923504114151,
        0.13254857063293457,
        -0.39128005504608154,
        -0.445110023021698,
        -0.3331433832645416,
        -0.2966144382953644,
        -0.15610216557979584,
        -0.32587480545043945,
        -0.20013628900051117,
        0.07270291447639465,
        -0.562567412853241,
        -0.3478412628173828,
        0.2536654472351074,
        -0.33356115221977234,
        -0.07176847010850906,
        0.22195319831371307,
        0.020611170679330826,
        -0.004908778704702854,
        0.09773305058479309,
        0.13896684348583221,
        -0.17126531898975372,
        0.1894744336605072,
        -0.12061861902475357,
        -0.5736842155456543,
        0.044714320451021194,
        0.5229303240776062,
        -0.493168443441391,
        -0.029534276574850082,
        -0.4240206480026245,
        -0.45706942677497864,
        -0.08225809037685394,
        -0.2946198582649231,
        -0.28596213459968567,
        -0.23608870804309845,
        -0.6310253143310547,
        -0.6031625270843506,
        -0.06843654066324234,
        -0.1525178700685501,
        -0.024238694459199905,
        -0.23565885424613953,
        -0.20824414491653442,
        -0.1118096187710762,
        -0.4125114679336548,
        -0.343326210975647,
        0.14459729194641113,
        -0.0484839603304863,
        -0.26649245619773865,
        -0.4445844292640686,
        -0.3143033981323242,
        -0.33054783940315247,
        0.031231964007019997,
        -0.07014617323875427,
        -0.03488548845052719,
        -0.2514432370662689,
        0.341646671295166,
        0.2586241066455841,
        -0.3905744254589081,
        -0.09389204531908035,
        -0.07891286164522171,
        -0.230457603931427,
        -0.1774551272392273,
        -0.3326165974140167,
        -0.37778738141059875,
        -0.09104195982217789,
        -0.06406750530004501,
        -0.912817120552063,
        -0.22390827536582947,
        -0.225892573595047,
        -0.7659440040588379,
        -0.20046204328536987,
        -0.22838634252548218,
        -0.032436273992061615,
        -0.22724221646785736,
        -0.15905886888504028,
        0.38316860795021057,
        0.23371338844299316,
        -0.4365312159061432,
        0.029086295515298843,
        -0.08991076052188873,
        -0.05491477996110916,
        0.03178698942065239,
        0.02153928577899933,
        -0.039114195853471756,
        -0.10608791559934616,
        -0.07414165139198303,
        -0.03383110091090202,
        -0.2777498662471771,
        -0.053456488996744156,
        0.2712952792644501,
        -0.13758742809295654,
        -0.5863595604896545,
        0.06777627021074295,
        -0.33711880445480347,
        -0.002026747679337859,
        0.25606027245521545,
        -0.17378616333007812,
        -0.10433577001094818,
        -0.18211698532104492,
        -0.2239217311143875,
        -0.36109650135040283,
        0.013589100912213326,
        -0.15071308612823486,
        0.15223781764507294,
        -0.37233003973960876,
        -0.04747779667377472,
        -0.22923271358013153,
        -0.026591241359710693,
        0.20997391641139984,
        0.024783581495285034,
        -0.3056086599826813,
        -0.18116892874240875,
        -0.28813183307647705,
        0.00009712902101455256,
        -0.4903995394706726,
        0.284042090177536,
        -0.16040609776973724,
        -0.1158117800951004,
        -0.47425684332847595,
        0.13224633038043976,
        0.09134645015001297,
        0.31067225337028503,
        -0.28027328848838806,
        -0.3269743025302887,
        -0.22810837626457214,
        0.255165696144104,
        0.24092040956020355,
        -0.19707828760147095,
        -0.2960575520992279,
        -0.0069528743624687195,
        0.13225196301937103,
        -0.4384576678276062,
        -0.26090019941329956,
        -0.11427479237318039,
        -0.46544149518013,
        -0.43677353858947754,
        0.23630912601947784,
        0.11227960884571075,
        -0.2139837145805359,
        0.04217473790049553,
        0.07749534398317337,
        0.11526260524988174,
        -0.16295446455478668,
        0.04555002227425575,
        -0.22736461460590363,
        0.14669756591320038
      ],
      "kernelShape": [
        18,
        10
      ],
      "bias": [
        0.22926068305969238,
        -0.663186252117157,
        -0.49574217200279236,
        -0.5077051520347595,
        -0.6452568173408508,
        -0.3206121027469635,
        -0.3153139352798462,
        -0.23660719394683838,
        -0.6219567656517029,
        -0.2877466082572937
      ],
      "biasShape": [
        10
      ]
    },
    {
      "kernel": [
        -0.45592495799064636,
        -0.20460641384124756,
        -0.7058517932891846,
        -0.18460430204868317,
        -0.01803010329604149,
        -0.04781867563724518,
        0.01861298829317093,
        0.033722784370183945,
        0.005476042628288269,
        0.2681998908519745
      ],
      "kernelShape": [
        10,
        1
      ],
      "bias": [
        0.33340132236480713
      ],
      "biasShape": [
        1
      ]
    }
  ]
}